digraph Tree {
node [shape=box] ;
0 [label="worst perimeter <= 115.45\ngini = 0.471\nsamples = 398\nvalue = [151, 247]\nclass = Malig."] ;
1 [label="worst concave points <= 0.146\ngini = 0.169\nsamples = 269\nvalue = [25, 244]\nclass = Malig."] ;
0 -> 1 [labeldistance=2.5, labelangle=45, headlabel="True"] ;
2 [label="worst texture <= 34.255\ngini = 0.078\nsamples = 246\nvalue = [10, 236]\nclass = Malig."] ;
1 -> 2 ;
3 [label="worst fractal dimension <= 0.055\ngini = 0.042\nsamples = 232\nvalue = [5, 227]\nclass = Malig."] ;
2 -> 3 ;
4 [label="gini = 0.0\nsamples = 1\nvalue = [1, 0]\nclass = Benign"] ;
3 -> 4 ;
5 [label="worst perimeter <= 102.05\ngini = 0.034\nsamples = 231\nvalue = [4, 227]\nclass = Malig."] ;
3 -> 5 ;
6 [label="gini = 0.0\nsamples = 199\nvalue = [0, 199]\nclass = Malig."] ;
5 -> 6 ;
7 [label="mean texture <= 21.055\ngini = 0.219\nsamples = 32\nvalue = [4, 28]\nclass = Malig."] ;
5 -> 7 ;
8 [label="worst smoothness <= 0.14\ngini = 0.069\nsamples = 28\nvalue = [1, 27]\nclass = Malig."] ;
7 -> 8 ;
9 [label="gini = 0.0\nsamples = 26\nvalue = [0, 26]\nclass = Malig."] ;
8 -> 9 ;
10 [label="worst area <= 833.35\ngini = 0.5\nsamples = 2\nvalue = [1, 1]\nclass = Benign"] ;
8 -> 10 ;
11 [label="gini = 0.0\nsamples = 1\nvalue = [1, 0]\nclass = Benign"] ;
10 -> 11 ;
12 [label="gini = 0.0\nsamples = 1\nvalue = [0, 1]\nclass = Malig."] ;
10 -> 12 ;
13 [label="mean fractal dimension <= 0.057\ngini = 0.375\nsamples = 4\nvalue = [3, 1]\nclass = Benign"] ;
7 -> 13 ;
14 [label="gini = 0.0\nsamples = 3\nvalue = [3, 0]\nclass = Benign"] ;
13 -> 14 ;
15 [label="gini = 0.0\nsamples = 1\nvalue = [0, 1]\nclass = Malig."] ;
13 -> 15 ;
16 [label="worst concave points <= 0.1\ngini = 0.459\nsamples = 14\nvalue = [5, 9]\nclass = Malig."] ;
2 -> 16 ;
17 [label="worst area <= 847.7\ngini = 0.18\nsamples = 10\nvalue = [1, 9]\nclass = Malig."] ;
16 -> 17 ;
18 [label="gini = 0.0\nsamples = 9\nvalue = [0, 9]\nclass = Malig."] ;
17 -> 18 ;
19 [label="gini = 0.0\nsamples = 1\nvalue = [1, 0]\nclass = Benign"] ;
17 -> 19 ;
20 [label="gini = 0.0\nsamples = 4\nvalue = [4, 0]\nclass = Benign"] ;
16 -> 20 ;
21 [label="worst texture <= 23.74\ngini = 0.454\nsamples = 23\nvalue = [15, 8]\nclass = Benign"] ;
1 -> 21 ;
22 [label="gini = 0.0\nsamples = 7\nvalue = [0, 7]\nclass = Malig."] ;
21 -> 22 ;
23 [label="mean radius <= 11.025\ngini = 0.117\nsamples = 16\nvalue = [15, 1]\nclass = Benign"] ;
21 -> 23 ;
24 [label="gini = 0.0\nsamples = 1\nvalue = [0, 1]\nclass = Malig."] ;
23 -> 24 ;
25 [label="gini = 0.0\nsamples = 15\nvalue = [15, 0]\nclass = Benign"] ;
23 -> 25 ;
26 [label="worst concavity <= 0.191\ngini = 0.045\nsamples = 129\nvalue = [126, 3]\nclass = Benign"] ;
0 -> 26 [labeldistance=2.5, labelangle=-45, headlabel="False"] ;
27 [label="worst fractal dimension <= 0.065\ngini = 0.48\nsamples = 5\nvalue = [2, 3]\nclass = Malig."] ;
26 -> 27 ;
28 [label="gini = 0.0\nsamples = 3\nvalue = [0, 3]\nclass = Malig."] ;
27 -> 28 ;
29 [label="gini = 0.0\nsamples = 2\nvalue = [2, 0]\nclass = Benign"] ;
27 -> 29 ;
30 [label="gini = 0.0\nsamples = 124\nvalue = [124, 0]\nclass = Benign"] ;
26 -> 30 ;
}